19,64,32,16,2
0.4057679586441951,-0.31807465160444265,-0.002254644882377929,-0.21824797851162336,0.029208251249929026,-0.013444879691071164,0.11749922583549777,0.08727574314977303,0.1369934436287922,-0.20120545504926815,0.45390689211414254,0.23302731400447815,0.1711202752987169,0.14551835824025405,-0.07796624052344824,0.10972518706398053,-0.07057656876748597,0.005924461448651186,0.15766863406557907,-0.3313160427509297
0.33289929230083753,0.7929901316002271,-0.34344784162326647,0.020696586248971707,0.3371289615394936,0.1633735069123871,-0.1774225679981728,0.033515513726680775,-0.11908489963278615,-0.5470388925176491,-0.012861264149007741,0.1582479678413627,-0.53113478667364,0.19905473307462446,0.3700146676012929,-0.10498726725493104,0.25119062853798513,-0.15214304840263274,-0.29292163215777356,-0.006456814149115985
-0.03850285275478311,0.16022307853126894,0.01086772621502857,0.21846953245885678,-0.24344218542155097,0.06884828611630157,-0.17474641607938876,-0.026650097530376695,-0.03147034113517356,-0.20998803566501514,-0.28118872786750443,0.020608697555744356,0.10311961376266053,0.04306676675906303,-0.1362376476084083,-0.2589433130329966,0.19584438326025025,-0.18887645657084956,-0.006026870694855135,0.9105983994895286
-0.0592532291272778,-0.1943622692045643,-0.4508045173455064,0.04059017788957165,-0.20464569522669027,-0.057578629327277135,0.35568919891823847,-0.055500850838294716,0.05106332132410304,-0.12016521158038322,-0.30001453220853735,-0.13645649845682986,0.2900775342068302,-0.22358604144584773,0.38353495251545383,0.040355534796523276,0.17025504403922076,0.05537836419872133,0.011048452254918418,0.1873894213696948
0.2768833961690895,-0.12895874655673412,-0.10068640948343935,-0.013315598622903357,0.2608127608703573,0.05083040053645067,-0.14662493500218077,-0.08738248258041775,-0.22506079668745202,0.012902834925323195,0.1716813850482673,-0.11165289861527564,-0.04896558276541321,-0.060679256406698856,0.26693332857615604,-0.18450126160117594,-0.4493826340635039,0.08612205431354254,-0.2812009916513626,0.3059142566711676
0.07644315122718659,0.05996585912695211,0.041862977974220714,0.24145862530637796,0.2220895077782099,-0.25223839277266097,-0.2635317958826327,0.1584274334295367,-0.07585471720951029,-0.5322771815691001,0.2512521568462324,0.2726994856784229,-0.03858187211596899,-0.008688642131686073,-0.20290257658927557,-0.09981211530011005,0.1276172699054287,0.03874383631426362,-0.2764138904082751,0.22525411702745102
0.4488328864514104,-0.6199198286601861,0.4713040246900968,-0.12880417912380956,0.11519358638253079,0.025675553912946493,0.30078556835315495,0.04790166726156027,0.06147215230904767,-0.15697622163963068,-0.24154475806292378,-0.21493466884448803,-0.025733207348204206,-0.1355047152274761,-0.25466216072891695,-0.19290534690220815,0.34674950292268336,-0.2949296058951238,0.18440784547401673,0.12451190187459674
0.2713722416832045,0.09734572578560201,0.30909863917486824,-0.8873010186383556,-0.27200109057210975,-0.06568712771500547,-0.2793350767971136,0.05880536408694908,-0.21674313199750594,-0.414432891943369,0.0802702798011044,-0.07400558437004073,0.4430575757790931,-0.05616556260778684,0.20633718158830974,0.1601514249077581,-0.31011420887303787,-0.08147074288378661,-0.05370386996687076,0.31208220751073157
-0.25358957852685926,0.03922115345396969,0.00845178700490633,-0.018963509258285605,0.12111604526634069,-0.2848394334483502,0.324732482255629,0.37513791213258224,-0.049384931666979916,-0.0435641353122518,0.08335695818395251,0.09931959553394368,0.17531395036372874,0.2906458135171745,0.31448748373039953,-0.04131863125332192,0.255538727188644,0.2081705692261868,-0.27097809338049483,0.016026682625318995
0.3931771384017524,0.28465766117855096,0.1043118731577059,0.46205537993955453,0.3445308739665009,-0.17031672828505615,-0.25936569092385975,-0.3487083902443892,-0.05331410405699295,-0.3057016312173383,-0.21369982217129446,0.31517210119572,-0.35838727802034254,0.041141776443734394,-0.165142811430501,-0.2485903202713097,0.27260227988497127,0.20891424196030542,0.1015967695426888,0.34466312932417337
0.023289657142114516,-0.020451938053732,-0.12525563697473063,-0.10956537054527836,0.05785665208149,0.1605714750043249,0.26066177311429073,0.18192216425975397,-0.22654634155398898,-0.024449227809590288,-0.05986046539358295,0.32512931296998004,-0.2617882335751909,-0.3632151916268407,0.30475235102291365,-0.18833587944494826,-0.12379183313732696,0.6928790832782673,-0.16826576789268763,0.5730657814611247
0.22739759227746212,0.2625063091667919,0.09773262659166865,0.1541734425934046,-0.1805004516712116,-0.07863031149626108,-0.2808066464990465,0.20079444068747943,-0.4389585370505419,0.4730083871072107,0.12982631384286453,0.33851820016181255,-0.06208538669685767,0.04317945221591237,0.1882136285216306,0.1933975523564058,0.022611296557324974,-0.062212699088591075,0.050060988018158885,0.23242913133558601
0.2699778447547373,-0.24017040824571512,0.019460923976833938,-0.236662615531045,0.044131061923827465,0.1061328580737593,-0.09023224588483916,-0.3088422122585263,-0.040255837835277024,0.17561287936732342,0.18167853287571575,-0.15110051770197866,-0.16838286369075317,0.2189285372051775,-0.30260963448219824,-0.4329358060900646,-0.06925658553950638,0.06471793982860372,0.16691706127235295,0.10593294180841784
-0.019312717624125165,0.20447771729208072,0.058923072265734545,0.14914429730842316,0.11843090372249312,0.2286572355941575,-0.2639070121883021,-0.20563198899584728,-0.24023674738070636,-0.27578631437345646,0.03617811030323028,0.030933167039729956,0.1621860996923071,-0.048597967315530725,-0.2048032250236849,0.0749452740861477,0.1603501390413308,0.15080703774855503,0.09814697256744255,1.1098280963749607
-0.07790812515112194,-0.3485725387032416,0.04420115389292014,0.16416044703466057,0.103035287975567,-0.1992014646008403,0.3348294607096656,-0.11322007270734077,-0.14735326834673068,0.08526969413532723,0.08192367860397316,0.18928843178011473,0.13477551032459317,-0.08584582080549434,-0.024587510304709376,0.26002592507231465,0.30227409958399093,0.1599946012345162,-0.17553077629560096,0.7112127816754966
-0.17447213350903484,0.04986663508657258,0.056427303882464856,0.6620334097611599,0.6860224688917615,0.1353289380982312,0.41173394120592716,-0.2290628411306843,0.21408101898206972,0.21698604230202892,-0.31165424760825433,-0.42961393823796634,0.5418139205752032,0.07404158771390425,-0.15483473698871586,0.45697563817204173,0.027206114586416526,-0.15771122275028948,-0.4536245142085714,0.08227232147080632
0.03679959991927707,-0.035167262630192625,0.06433804931601309,0.13642488005847955,0.2077512547718049,-0.13764890895009593,-0.05146147050882861,-0.2321654605057046,-0.35223699303172507,-0.06449813016009671,-0.33054090792859614,0.08419701480976034,0.08277858810233123,0.13374137945866427,-0.3186803107026063,0.2170129349329834,-0.297941034732671,-0.22544585748886398,-0.07530597355946234,0.9096439244953002
-0.0466493085663477,-0.29396221384523236,0.1437682974508883,-0.3059453645510586,-0.11888946365517743,0.2971979945716463,-0.13664228202049816,0.22689688218902238,-0.20765076451805112,-0.3054558952599352,0.112324704869181,-0.43913509944999923,0.07551141152048692,0.18627735775853868,-0.615770448473169,0.2651273034421602,0.10155946078585026,0.13899750873699984,-0.23122555846100745,0.21284800393936773
-0.041067899245454016,0.13468976255864373,0.024209123906313586,0.00935921365313721,-0.013571010116357963,0.02053063537715244,-0.21763228396689133,-0.08609997917667891,-0.053066898529364956,0.07018191452468679,-0.2950182748056981,0.004097657123255621,-0.12637623478230442,0.16343192615255386,0.619837069474804,-0.18231079872682046,0.0002969366694284606,-0.16985821079122126,0.43553682748127215,0.27277187925173746
0.002647737888124158,0.021849596416803785,0.03810441816736209,-0.03030490831613003,0.15169722181016745,0.017342437506033762,0.21504005941345922,-0.16167732093583184,0.20431443082297532,0.3189823293758167,0.10922578574365305,0.08168492992479641,-0.035544749813731485,0.16540063497374813,-0.09379721235458012,-0.23843744649015727,0.11160486323305717,0.1002918446691911,-0.01059306851824095,0.7818450042640427
-0.10044202711504158,0.07611418628994093,0.04189829011262175,0.43105932688897364,0.33994514704109474,-0.18737007875486175,0.014154660234331283,-0.09281327682545233,0.37245082342849395,-0.04901318242644787,0.15796731051952434,0.07296387308844632,0.4424057492884295,-0.1808456274883627,-0.01644411315696142,0.14917383376687587,-0.16433750016660587,0.05067246184224464,-0.0019162929586322387,0.06166969204482899
-0.09646832825120676,0.06993334305551539,-0.1137652655764443,0.02931620135529587,0.2503558618408782,0.2735932606509317,-0.211453074842447,0.24758067308789772,-0.022014156038527417,0.017333126348242297,-0.2818804790870333,-0.2915839859033489,0.20648640599600335,-0.06857293557143805,-0.3361086468168858,-0.12595154361452846,0.01812897068604263,0.16304951072973517,0.01590849855289499,0.3598508300349656
0.015791775917770087,0.6802415650231922,0.30418911964319956,0.33640138639271233,0.21805479063519922,-0.1003804460567138,0.41431534615721805,-0.1998139802747709,0.03443202452110746,-0.09190541282801015,0.0509918869859524,-0.3544945744965767,0.07124181470513977,0.14436007359579925,-0.09555018288811909,-0.04187255528912023,0.15091391458750777,-0.06079870506886219,-0.19426319867991854,-0.07863562237565755
0.33912773969493826,0.16327017838046912,0.07823365845455793,-0.08607433691610719,-0.027933370265160778,0.014935283150522978,-0.14949445028990763,-0.04482590692067387,-0.19343788960336028,-0.12051682702466406,-0.2889811832872214,-0.13573004278771583,0.22365342039312736,0.10853095342642542,0.19539411770625797,0.18142527096778666,0.22131800009933614,-0.13046415719838667,-0.3629851885493629,0.5725429173979519
-0.4241510256177259,-0.39027394976943625,0.189848594440486,0.11802235451702121,-0.1231924831020311,0.23791066850584305,-0.40687139608134876,0.03801629665337639,-0.04037792946099413,0.23175795246381264,0.2793285171391821,-0.086662619477359,-0.21896264871774304,-0.02913712193673546,0.05307030935746426,0.25429326918292466,-0.4062107864613115,-0.006304269231846621,0.2763587258787979,-0.009780012892570434
0.2569987686073013,-0.03761296776726198,0.44391543535828804,0.0002725367124958248,-0.06866822208192037,0.40429169337341375,-0.10690367162790335,-0.01715771726669361,-0.25583816797548153,-0.485946480388902,-0.3486751834808993,0.05021276573690857,0.05667472974679864,0.14148441647628698,0.20553380483246037,-0.14733872080419286,-0.0849116547371867,0.17796880996312595,0.1715370780925145,-0.31963667747096186
-0.3530874474192331,0.20982332720869312,-0.48162729971124746,-0.40817110119935,0.004993588435687419,0.098065859524352,-0.20032831817832517,0.34599906631075195,0.07517077254585677,-0.33020911814865617,-0.31523714107267653,-0.17300952072828413,0.3077713309772059,-0.1082857051602374,-0.24361277545052923,0.2466604906795661,0.08585915505471241,0.23900827548540815,-0.10772799841758253,-0.05775095258268452
-0.04816047431873809,-0.25068463888023695,-0.2246583132194022,-0.07303138308679887,-0.033883015464623925,0.30104115046825947,-0.2113144437586821,-0.10851249011125556,0.12811255219146633,-0.2236719443765453,0.4188295362297778,-0.24747706374902667,-0.047702067261701044,0.2815698345731004,0.1618568684080123,-0.18969575321748006,-0.055380432618058764,-0.2697622315558421,0.21347876582534578,1.3953084151422106
-0.029562588061105104,-0.2940281637699599,-0.20555268215418607,0.05347151159039554,0.10850253687935407,-0.21210713437011675,0.0777140753794123,0.10021767469826896,0.23525352221020834,0.44930521324247086,0.015863776893285567,-0.1382495135091314,-0.018572274030687806,-0.3946018546922824,-0.15926555271108878,-0.12189870990175836,-0.32041117703596667,-0.14924793016331603,-0.007032470608727686,0.44949959749829166
-0.02455099473370249,-0.08020233249124681,-0.15070253185168794,-0.1341318671860304,0.3124973632220947,0.17975820648233398,-0.11193890120137052,0.05890084311054511,0.07675373550472268,0.2238826019148743,-0.1675774728188797,0.36566008901669794,-0.3556299806088645,-0.06899949410332241,-0.45460737455123423,0.06912481580536002,0.10102129513252861,0.10163230988709786,0.2582387621064413,0.8382373526941872
-0.09773389560266203,0.08873202817192062,0.0458673599983044,-0.25469245592139983,-0.18301589920716488,0.09236109623060001,0.02772818771848138,-0.12897733123709196,-0.14491095726129244,0.14007982876399552,-0.19115041668071292,-0.10614140238877112,0.07655522264150504,0.17892430032588297,-0.4431604429613836,-0.5201841320897647,0.3495440552617437,0.09884295175692663,0.1654214631797927,-0.20459375741131364
0.07943264119869624,-0.1263997044041874,0.07421108347958495,0.018376624671766623,-0.23856521946914372,-0.2905898513768552,0.07648643692920148,-0.018398972472109355,-0.09904281302309732,-0.30733014381499335,-0.31574699938142914,0.1604983902737921,0.4016755453772528,-0.02214998974699437,0.15033219156913336,-0.1726652282619775,-0.3050732121341345,-0.48467261088104135,0.22843519202614987,0.2413636227661176
-0.13817921151877668,0.26196254041831907,0.06584041529564265,0.22336797773330952,-0.0008167056187086388,-0.19396841864366463,0.2981578419564454,-0.35833133571631076,0.03358900275672223,0.04574169273899316,0.05685300513871684,-0.17780420884616613,0.026417981381200505,-0.19871720674050583,0.12561310922450017,0.012052680851079545,-0.19968565560619178,-0.30965499233677596,-0.4656820502597585,0.880054674554281
0.06823298282594868,-0.5475386754806361,0.09479720168857986,-0.15921803542367266,-0.05032973478086535,0.17846107857008237,-0.2874985365863469,0.0073888725806330845,0.3611184807041794,-0.25744933855613855,-0.17217962214578386,0.059749348322037085,-0.35514008294037464,-0.08363324932118403,0.06032884051598208,-0.17129183092116196,-0.24870445913960681,-0.2735463685379622,-0.15191930333476591,0.29620482346890464
0.13671137532000788,-0.08617325297905155,0.2647635963985932,-0.01058696352127527,-0.06029531018396572,-0.15263791408414015,-0.05506199785461695,0.13968857569982937,-0.22109612697504855,0.12367633713512723,0.04013415338270075,-0.06263960853825806,0.22633218465628133,-0.23848646669139736,0.15695153481050503,0.017353856042350086,0.0345003778683855,-0.059199319729625326,0.3745150431024786,0.07257340454791184
-0.01108689424035175,0.10640728271515762,0.08887877367701208,-0.09151598024884945,0.20354075606606828,-0.034451587268800286,0.1206689435606215,0.03935523148666056,-0.2031325854472737,-0.016099951266416338,-0.06417591427573639,-0.024471779849890674,-0.18824759565172144,0.03249200656199772,0.22393624485894537,-0.10919195255650603,-0.008464017122443277,-0.16080877491984785,-0.18372289174481235,1.395845337717142
0.08253601360775531,0.19923300961550125,-0.18176807056829777,-0.21803724799484508,-0.22912907385532444,-0.22733707496839783,0.21474620011338486,-0.20443928433711261,-0.07353314471139609,0.4592038307041502,-0.20675786178119673,0.2843984768266563,0.038380249826450816,0.33588499012375855,-0.2132532247841848,0.06808291800923895,0.2914370299034882,-0.40441536195804056,-0.01973302016266399,-0.040577046219235136
0.065233370173455,0.5046940738957624,-0.13805234042738843,0.16820906916277129,-0.21705599328501693,-0.12661341956321348,-0.181182139970644,0.24536997428726048,0.1733005244265813,0.05812250385756905,-0.04985086718797661,0.03768368646898563,-0.14384572289678235,-0.15265710995945306,-0.017473211390278565,-0.07643452286767474,0.38522550126459587,0.19635900059776304,0.4296356226915422,-0.12304018730332293
0.1556942190961212,0.2903721453337352,-0.08008203391877279,-0.08047227846475272,0.021802335907827326,-0.003776783367827276,-0.07327340729946902,0.20798636730961725,-0.012030147502861018,-0.1396934044387652,-0.18484185482375895,0.028556166611892603,0.3435477366721409,-0.16119229877308344,0.19688556528736315,-0.2712973010191537,0.37408290412523504,-0.08648158441742612,-0.29938089052222666,-0.02999886019691933
0.14459193931374872,-0.040126745029825564,0.017923148737377586,-0.0005811208781734736,0.20027956576176792,0.02328428926283643,0.00985925842810514,0.1609577717443378,-0.13555737181672026,-0.18348643599912243,0.31323999917146433,-0.4158620102567945,-0.05322348381884995,-0.04367162764987453,-0.36166331950635916,-0.2183160849234957,-0.15577632909735578,0.056330459224920304,0.1380495425527208,0.10774087383012414
0.2984136324416896,-0.1384789422607884,-0.018052649401858512,0.13086091565812746,-0.07582148833599944,-0.09951404922471667,0.12743535947126394,-0.16467521194460666,0.006707155731551213,-0.07551500375405454,0.15513957217171143,-0.1304641734846659,0.17449657780130126,-0.33999165354611066,-0.14091443034233303,0.09896541496044443,-0.19949569181396093,0.2954152536617818,0.2567247521643049,0.7223445087057252
0.09066228858294734,-0.18000128676878435,0.03883106359829024,0.14434380920320544,0.4115343841007391,-0.042131977716499416,0.029037314743645078,0.005482151859060131,0.2205459744797451,-0.38892805626350135,0.03921012604477351,0.10942483887826683,0.03648091372093386,-0.47459784350662565,0.23687593962907696,0.3607912171611384,-0.13222687579716935,-0.23688284611265903,0.3658961069091451,0.345949670498978
-0.022655169169829813,0.2140007057379333,-0.19906561374861736,-0.3111024038018769,-0.18759742546126185,0.055736451022636795,-0.30876315584965336,0.03417815455866163,0.34223675082219585,0.39666482622365756,-0.02714116753053973,-0.12408953858845141,0.32404837288660254,0.06962427740958298,0.04510315810771989,0.017140449962451256,-0.04772293083707321,0.36592116583936507,0.043315356886688104,-0.1891388051401339
0.17982323515089133,-0.20838029010993525,0.0487688522464622,0.21421823151406216,0.16789526056569823,0.006795995339179097,-0.04403414290693246,0.011022615681705344,-0.048971191695077694,0.1700121167369386,-0.2832919006367775,-0.42704546730310194,0.11426333647878209,-0.04838111199349066,-0.04170442956348721,-0.21986852184206362,-0.023791649337587692,-0.5054515341071946,0.11791873273900824,-0.08338457310781801
0.020598681195046053,-0.11528331698780325,0.14928801736987038,-0.19658709808192673,0.027062657216978977,0.18228214523200276,0.1487262942096465,-0.0018604043877792666,-0.3751919156445396,0.0743381495859702,-0.2385784581356229,0.36104590068280357,0.023447064651527696,0.2592587625533143,0.1666986904311088,-0.08433113672959877,0.10348545555849949,-0.022441771558054293,0.12129232725337016,0.7377649194564084
-0.11552434753033579,0.10848720105943523,0.2125237294688545,-0.31086522208342154,-0.18085514215548698,-0.013264948753914745,0.06205120624240077,0.20123083644756298,-0.3217688936644426,0.34548226937473725,0.08092826633252949,-0.4530849680730468,0.4467348837867569,-0.1751914516876827,-0.06759128528464481,-0.023122400465585946,-0.06659715164621476,0.218784100383423,-0.030442763052320104,0.34044671649654024
-0.04720954911946714,0.14279416638658995,0.07269133453361461,0.2172533433152077,-0.6522013361439245,0.17647066061555963,0.10852037823991496,-0.20978570013723655,-0.04183140505965105,-0.3001568786561718,-0.11698370371361234,-0.14509932534688277,0.30708568009894,-0.003418052187169604,0.3007378856140622,0.4498545374786258,-0.20072454025584568,0.2664953272674004,0.055967012553555386,1.2296836217752105
0.09756658349253029,0.2905595231544405,-0.213424633102841,-0.6459979245280575,0.2674882725452083,0.0878343341183244,-0.41142097869260713,-0.08410524146107749,-0.3687022783543255,-0.12921463524998583,0.4820372891035754,-0.40677945997966686,0.10478189711127704,0.14278049342570984,0.18631099479759872,0.15140787459645588,0.47068271760595765,-0.15141387519058003,-0.0842388940854233,0.3539714280532418
0.09901714135262284,-0.10900434697113848,-0.0070405873839677335,0.20901318256010892,0.33078416044061887,-0.02164545037635272,0.13616687163812086,0.03693530094682668,-0.4220181608304369,0.028812357973754112,-0.11287208004115329,-0.23679726366028225,0.011810052232391836,0.17378690280180317,0.04606589432615393,-0.11931187150318782,0.1702979520351482,0.1356328903187353,0.09760699512995323,0.3689631695094789
0.05122813986568233,0.0922129660497329,-0.3055939089159603,0.20547971510489618,0.05163383643425708,-0.08914813704842403,0.5286576537802121,-0.05999088479671962,-0.16954633499931018,-0.03234617962755087,-0.3838721647089522,-0.34067065719520445,-0.10567598826661126,-0.015326544129173012,-0.17761309459939115,0.0891729295303593,0.32009193518748724,0.07958202137529531,-0.24683401530701982,0.07139978232790262
0.010252086123723622,-0.17870320075560248,0.10575847453640008,-0.06403502386125116,0.4578543472696422,-0.45801137730631897,0.46462217695918373,-0.05163827462386406,0.29691758011147074,0.1508430216116389,-0.3455911048774096,0.08800384008206623,-0.14774284965403697,-0.19882126135004788,-0.2372163392100097,0.03326257656777067,-0.0752025855949129,0.028675515985815823,-0.08755320531873936,-0.07474819208094771
-0.09050680478903228,0.4180833923800987,0.38555088029446255,-0.35433981397442055,0.09968650967474105,-0.04439185460596832,0.029599773228424393,-0.18234603793380946,0.07920945948964578,-0.035308281969828985,0.29501657796106734,0.22317800364878917,-0.031952769875143255,0.21729815291360338,-0.07092216536104286,0.16305422289925822,-0.12296461642963831,0.1456162566096671,-0.28128896784981866,0.22759630412141746
-0.017271125876735488,0.12804265752020086,0.006234307975414381,0.1236505579956054,-0.10141953339462882,-0.1196690430261571,0.303809110736687,0.08224324505472252,-0.21889412116194265,0.026102577684384568,-0.028195549520361286,-0.16604880757601256,0.07449142814320774,-0.01898835827868962,-0.35119007733185365,-0.02581962843130891,0.23939315849641019,-0.13670556443764087,-0.18476417722420133,0.6551958708601372
0.15799479362981886,0.1515551544208125,0.3018622257159911,-0.21077004371600438,-0.07781048975143132,-0.46715248249975666,0.45116687097662495,-0.25593870250282336,-0.03781937800440598,0.07936115621118311,0.1034928391582798,0.21863709763704606,-0.09076670452523691,-0.526215345181769,0.21871267592249977,0.017154767645079786,-0.08716443468658097,0.24363865646526173,-0.20255476765119138,-0.045121193873777464
0.1134556106777013,0.106599348386354,0.07493910436842174,-0.11864364149579745,-0.003394087496840621,-0.26531159700344764,-0.31961263042140786,0.044030604892811034,0.11357399045394934,0.1422908670390988,0.20182213566804438,0.09091463568172439,0.08674106908011424,0.009379999362560286,-0.29223968548075885,0.31551648772234503,0.21000878709867088,-0.1534829077918113,-0.2988739625239209,0.1367186030432727
-0.04421764589779698,0.017067648963875633,0.0355807306445913,0.11207397834846304,0.12465089817899414,0.4448582945121592,-0.21754779063886406,-0.2440011168768551,0.04653861169374957,-0.291327243233952,-0.6291441114091781,0.29497285566644826,-0.20991016904561807,0.07583363485883905,-0.07141067227943423,-0.12425475773237997,-0.1149073398815589,0.15756171555274562,-0.22874262870792905,0.5646109878391433
0.018654079594054518,-0.0774647348102148,0.03823173007790231,-0.026176140673631217,-0.01637558616994815,0.1668124061133493,-0.21643741741998393,-0.05897371837501922,0.13242573957878748,-0.18590585016748604,0.3108309804622261,0.07387813550004692,0.07955489410766779,-0.0695570249427323,0.30663104399437197,0.11642909147210212,0.16346302899651177,0.19525123618967466,0.10379415822988322,1.099817690289897
-0.04162255434728441,0.06979391405352328,0.3887041183586062,-0.3986081993333626,-0.010565442460182293,0.025530319189643783,-0.030724582959220925,-0.07621043429936092,0.13180796861732455,0.03558311680395741,0.18155867024067995,0.19247756859785717,-0.2803170514294558,0.3181847323523455,-0.30366814866242786,-0.1650783471470208,-0.2859650312205168,-0.10163662614100863,0.30193570461679037,-0.10974186419578677
-0.2262858926161079,-0.037078041690033495,0.056968034221259345,-0.30528797202075186,-0.13888467318721656,0.626612282919505,0.24505425303123196,-0.08661207111986231,-0.14469199485103945,0.23470122673421645,-0.13246596537383726,0.055121853657561726,-0.076936542953023,0.3326358313624514,0.16916516738539428,-0.3063845952842427,-0.043440805072997905,0.13841313076103207,0.027567495526042502,-0.09594951588664123
0.5725999040824652,0.04331556625008679,0.21363514432055725,-0.08598486110697202,-0.0741998573065954,-0.43959016417448604,0.14062479452019044,0.39328560618987557,-0.014879829033686403,-0.0985997802403592,-0.22873073941320132,0.038737509103242904,-0.07322877288022205,0.01481282086473419,0.002857678550141973,-0.04229867348477196,-0.16739314915625925,-0.34202624099398654,0.14573038026346702,-0.16825652326147364
0.2188273746737652,0.28740728088902406,-0.26421042954808877,-0.3971787822594716,-0.42362805788531377,0.24445401768343686,-0.05225416303546541,0.183274635677873,-0.33747805911167006,-0.3656838305983619,0.34993347219726467,-0.15878710793949047,0.27206468295985026,-0.22132342378247652,-0.11414221708793884,0.06308987075844542,0.14809760362107963,-0.1000809705397033,0.10712136818996303,0.010156242339095917
0.002401450722042921,0.17136086309066578,-0.33954697408244,-0.07912616751537081,0.1389327076703954,0.3200044393298654,-0.15824628450347145,0.32458283376031677,0.024658213974194036,-0.2664358571723589,-0.01172581571534906,-0.5257690342565958,0.12366575771207702,0.010146402538115029,-0.050810499705224325,-0.432448872561367,0.019688288594656145,0.1685059468705299,0.1315859620677947,0.02321651766525212
0.3000831801665775,-0.005025371459657147,0.10544167649596407,0.38709160320972263,0.055189571001525696,-0.1465920034517895,0.10812948137757865,-0.5979457573271226,0.08365812606520337,-0.058674063592345636,-0.12613650468097004,0.23213548578025334,0.1374331065018635,0.06163389478271034,0.038848172548444256,-0.20696650407820083,0.1813609418344845,-0.09169617242257498,-0.09982416049723222,-0.3499937389431349
0.2260054299490065,0.17639103419819796,0.17995601026354452,-0.014816866093594002,0.07244411090789339,-0.014159539265426502,0.22145834022814712,-0.13103918993527708,-0.23581914857342948,0.17444747561801258,-0.3434740894155429,-0.18136552398453648,-0.22172944980320533,-0.052547522306944504,-0.3900009685320555,-0.05824624988276578,0.45006196711407903,0.06922772403241674,-0.037098622108337614,0.38573569876437186
-0.12049923808853943,0.03158429120504626,0.0017836717736823872,0.01602437012076501,-0.28879124795942357,-0.14217527362603316,0.2784289261839042,0.04529149592399826,0.09856906929215077,-0.2636371477577164,0.00619564720519132,-0.1869726917604313,-0.08771073617293058,0.01958233705393765,-0.04341512649493561,0.04461721470639545,0.24772058631848004,-0.22424340964649125,0.2115489183993855,0.09302421720206829,-0.18462384792780073,-0.030040920565368088,0.005662806171390813,0.1322522721151732,-0.06526951551600876,-0.2750469532018482,-0.07412135414973181,-0.3707207204608938,-0.19578282901898306,-0.08561353017740518,-0.11373712247591426,0.020863411943283977,0.22298849409294264,-0.08839189395642981,-0.12837102624401686,0.386415095418696,-0.03657834968053158,0.05990660632436402,0.008168982777446529,-0.20673500719315757,-0.22726664717448988,0.0484773396107039,-0.19122664640688433,-0.11136497026241718,-0.12535773430976413,-0.21131188070606965,0.13230369050231572,-0.1023128890657482,-0.023286651664274915,-0.10677662746230296,0.017857720297278355,0.05404126276291592,-0.07452493021132557,0.24019219028593625,0.1020262842227322,0.01124538000068166,0.018656414037811403,-0.12200261006146332,-0.1051000567527609,0.16613550720749,-0.06066239421657001,0.14636855643956115,-0.1297845611216401,0.14675642640983583,-0.09915674578893074
0.0026558280009699006,-0.3577338977775463,-0.06323971552058702,-0.06383039432209181,-0.038976162398720995,-0.0020838364265948653,-0.22761465836422085,-0.06192277971512191,-0.07041134665501513,0.2703152581699638,-0.16322326720642263,-0.13978759188335405,-0.2000026750976091,-0.017305297345784374,-0.08553195243508359,0.09743550220986619,0.08635336282778924,0.1066901907564446,0.010636166647213105,-0.0011710971290136401,-0.1598539697040465,-0.007046577188467236,0.05632998875383047,-0.12498751416911841,0.1730123723597848,0.11147518052802242,0.26527779740129814,-0.02744949787280121,0.017088324936393316,0.20575718835318427,-0.11637515536565834,-0.23329994500906132,-0.04884843077787155,0.07036399109992689,-0.1259715608490619,0.135039980167367,-0.29075906032482685,-0.23234313282970528,-0.026078482355299994,0.02214169751134366,0.013801545741258407,0.0023928143044954337,0.04258994889950683,0.02051132166983589,0.08497975820526489,-0.15504989050389872,0.02329629794578673,-0.04652333426839974,-0.16954011530120955,0.085760031586678,-0.0156942813079409,-0.07762672633931676,0.0011422828621296777,0.1167457471559052,0.11313734571263705,0.0468387106020657,0.03435956194231158,-0.1191778144038044,0.06481018941543049,-0.18479475417561964,0.036396771354182136,-0.18914134715145553,-0.014615657562146183,0.12528157005891466,-0.1127655967908537
0.09162741529465773,-0.049502583753995605,0.11536469263014174,-0.23387549865531135,-0.0487453882464062,-0.19736996371240806,-0.19978312789460334,-0.13480754310171472,-0.022166153300265876,0.10820480207733316,-0.013403773529314962,-0.03973696941682623,-0.08834476547121353,-0.2649442990304685,0.35367974168205607,0.2978884921678465,0.08619328954062398,-0.16070128217892723,-0.1753285833079344,-0.011936849924774522,0.13048408900835512,-0.1821988735650382,-0.0012835218887876055,0.09919800731472964,-0.16945843128887375,0.03646995569169917,-0.11511742834712518,0.10440439509253685,-0.04660454432579325,-0.05619231329046931,-0.15465705388484652,0.12592378338522353,0.1420700609034602,-0.17434267472035903,-0.030272203558943646,0.038291104523284825,-0.08514567111163279,0.1136603341529219,-0.12880448580062878,0.11740053338444387,-0.08828740817817105,0.2982265418174175,-0.17249251316651049,-0.1357328425404203,-0.013431298803602113,0.09795737007275387,0.008487382065822075,-0.0763044480467235,0.02039252092397157,0.02170978569689851,0.09169478072702046,0.028206987901077944,-0.13042476363722075,-0.17839668813945456,-0.0841866485285049,-0.1011412226796111,0.03259593489649819,0.07860330423754248,-0.004077888381498873,-0.12276092115959766,-0.09649503235016729,0.08450009193923554,-0.17427256500235605,-0.04166270344901278,0.025026153044769444
-0.05610779950987218,0.06861390343999796,-0.12493824954636505,0.08731720806926414,-0.06889948118439868,-0.22729442142798464,-0.1683291854108097,-0.03899857887898498,0.2701283502210299,0.3431632544533344,0.20364774387829834,-0.16023960367643067,0.22741901038662693,-0.01703443688725546,0.04096703368948557,-0.20769182174245496,0.10486136067438234,0.1496060689491234,-0.24987729880390644,-0.03265296895689394,0.22518723661846043,-0.00771718020112236,-0.14702379494836212,-0.14965247876672688,-0.0183364735372115,0.028995665604623688,0.08390086587228049,0.2057586027591229,-0.059707528922635034,0.1757085009710441,0.006114318148667614,-0.005781490929409157,0.17841093122276575,-0.1641677451175846,0.1715800406341266,-0.07091055369320552,-0.031216232720392076,-0.1889887454915562,-0.2377397710073397,-0.09393289975136086,0.08809263849874058,-0.1614493776428659,-0.07320918423740984,0.050519888971768206,-0.11438642641831588,0.041689606901721764,-0.12105102421175103,-0.07973300888384705,-0.04561431322538638,0.1302515964759898,-0.27029817812212,0.07450722207160733,-0.023463201262732616,0.17350075154794556,-0.21935860576593486,0.16119613075460604,-0.037191136627508115,-0.010204027140014562,0.13067278798546414,-0.08341356938239297,-0.03577877652277212,-0.0652009520213444,0.11566046834806608,0.08096442354349175,0.04163127670804673
-0.05026151421266258,-0.0029770263400902535,0.056695864678345316,-0.07320422293813703,0.0878645283535692,-0.1510761232078075,0.026928725966172823,0.149738268030742,0.0545404371443621,0.010318242401555672,0.10853187450652044,-0.2445024964887748,-0.03809640164303909,-0.1254263720565094,-0.24140669907617787,0.02703779055276478,0.05848471781751118,0.004990981276703763,-0.012850896799224769,0.05758320578593422,0.027920313782037676,0.07762181515133962,0.019092750394462288,-0.24879628852493305,0.10224401869302747,-0.05178394231961291,0.10120273043543496,-0.06094652512863838,0.09245859520846852,-0.044884594717577705,0.22388622768964853,-0.0996916522157202,0.15740914063689948,0.010556536478822796,-0.043244549916313046,-0.03927076540629401,-0.17073681405589017,0.05607467284023573,0.08446815148717922,0.020317774114808455,0.03562234622089134,0.2903462976870415,0.04146432729482362,0.12010386873793237,-0.05961095227570965,-0.14113989837210877,-0.09252435601842904,0.011152631902685393,-0.17881162940000236,-0.2762594016024555,0.08833553064380308,-0.11654763272936977,0.23299097477888658,0.2544109785369904,0.11595299668211421,-0.022060241332939688,0.005372965079185658,0.05425249842383592,-0.17130217104219927,-0.05806022300250033,0.09756345510714783,0.14621317760479874,0.10215442554897981,0.0068494043963865945,-0.11993501369417804
0.09862906918806084,0.006531761443480511,-0.013316172055439838,-0.008203888219203889,0.06544477342517994,0.11908752658509418,-0.037077678489256034,0.12193604779752519,-0.08099628687546476,0.23413871739264144,-0.042481037088264846,0.11433260287567021,-0.028894892574522723,-0.08162115129117224,-0.23365930459220655,-0.08548910894945752,0.12685095222597254,-0.0011839148450865675,-0.22167933001611625,-0.0308634275715752,-0.10255792353429571,-0.0811774766357078,-0.03637304429913187,-0.28128694787225406,0.17576576552443596,-0.06673158598151345,-0.1842820406420585,-0.008686653145756371,0.12193954163583344,-0.20338117018873775,0.06406913741771791,0.004263114329676733,-0.09497986275478182,0.005882168298049993,-0.044785072072313345,-0.024622280862910233,0.06828445229142223,-0.21713366947580337,0.11609668437413953,-0.2125142479990375,0.17185799934488652,0.01789636574194567,0.029213456488432807,0.024068481934134363,-0.010008494820907116,-0.16695157161119767,-0.14472139647409699,0.18848932167777824,-0.2813228630874269,-0.06143290467479614,-0.059084400008760134,0.17434162206976264,-0.025940707174830904,0.13311633470258463,-0.019216609588163083,0.08673029235103936,0.0173088103902758,0.3696992701744739,0.23978755408621377,-0.04136092941814484,0.11675508322565539,0.03695791187850277,-0.11181805272485638,0.16704500403878295,-0.036473909893461186
-0.08529671965884579,0.05302047420821765,0.14304050497024687,0.14051641375249535,0.22543683609277637,-0.2613842528798478,0.11725378204383423,-0.17864700195413655,0.16449939180018802,-0.02388659659529459,0.09409429135240809,0.06328524218564904,-0.04098961496426721,0.0255020880094893,0.13740570080374168,0.16325526313466332,0.4351252806929361,-0.058069205390934,-0.1760936466792668,0.06854476509637071,-0.0012210640314327776,-0.051051338841795135,-0.04132595712223283,0.016341948896499064,-0.1391908118469086,0.0445709109149222,0.1120288512176776,0.4536745668746294,0.2179448897831227,0.1528339947195906,-0.11391122077730563,0.23971651096754612,0.10416488007401724,-0.028814584631524677,0.19591679523368088,0.31886383674993174,0.0636635426685948,0.055410067629996285,-0.10586994391681928,-0.037156103768327155,0.2596929559166201,-0.04977277927674068,-0.10496388893208325,0.15637665036539514,-0.04473306483202034,0.039934847044258266,0.1850614347906542,-0.0031756584545058184,-0.025105712504170014,0.04705027681972217,-0.1586892921821156,-0.0037704747595729417,0.018091693235246866,-0.17654449141946843,-0.01909806982508051,0.18303462778169466,0.46243737858765444,-0.002261655670703114,-0.3045625209509334,-0.16104276815957588,0.20694374820326625,-0.22260266214118754,0.0008229776073255325,0.061257233858375414,0.8554885935415647
-0.12031042181484286,0.06523494161476581,-0.019857214455630295,-0.13242040389878018,0.03836180449621808,0.12463790066634378,-0.029877746452948977,0.25264817977749815,-0.23158026878408478,0.02821420288149885,0.38806084435266863,-0.0183551504195678,0.11393913411271467,-0.043083314545518274,-0.05728668227991406,0.03884082501442406,-0.01679426594377694,0.04687409074581854,-0.025992558499453706,0.2102619532615681,-0.12205186680326181,0.03532349798941967,0.02332117385813397,0.14117097643661036,-0.09330331621328343,0.03128155257677701,0.002882172272454281,0.10004673630135076,0.11693914492722754,0.1637140712025316,-0.21449712214582353,-0.11942021033814543,0.105682289357255,0.08617625805897068,0.1303469071815484,0.20918518163181588,0.08590755525465038,0.17023873837586934,0.06887242257697418,0.07844275051386664,0.1273103669055304,0.1781981363490645,-0.1360742830517628,-0.22174848644785156,-0.06523920121425049,-0.09773371710613044,0.1697349516331796,0.18791834012734282,0.01957967140874593,-0.04090676539748313,0.17351498543574753,0.18806675475394588,0.1096030924055007,0.10901397745412233,0.024852563761846524,0.3006649450952597,0.032423641080901934,0.01116278355990788,0.1839910041535519,-0.06764178598417848,-0.15746751863978548,-0.17186439931563485,-0.10210641832708764,0.09315740660487856,0.5744594329283326
-0.01939228154533458,-0.12375459341993249,-0.03069872030443871,-0.19180958484991,0.11710451044123468,-0.050327258747072875,0.13436272164824337,0.11245240704360816,-0.07263021719905245,0.06233593777302813,0.21115182133184907,0.21106303452001135,0.08249239070255318,0.023332564705383904,0.15129627925218464,0.11873071104780586,-0.15473783510553454,-0.08243928160056521,0.19712214299483655,0.2219915260495973,-0.2044956096382013,0.09362022642882516,-0.009910374572939985,-0.08641037643330203,0.007664223869091098,-0.12828322331120434,0.002305093311637001,-0.2077196619389694,0.1537428957303127,0.3848475573234322,0.019481601682796876,-0.020333434084761588,-0.14828317837480398,-0.060525557681048156,0.024763823287516674,0.061142983194400626,0.12036972466498197,0.12420245706163623,-0.11352599994120702,0.07211234347934947,0.05227415589247641,-0.062246301532036974,-0.12709437804055834,-0.041968634359407134,0.29840390117741733,-0.1122079969600722,0.00033732963431342105,-0.07478158624642388,0.03078356338403876,0.23996083856368536,0.143284342898396,-0.07495211625463782,-0.08485229101789205,-0.0581535298297899,0.11669060397527264,0.006639644202537183,0.06316643979981565,0.014881322392396939,-0.06195546593496895,0.06995899157659752,0.16991455487431417,0.08447560330635441,0.014934712665321816,0.31031680033227843,-0.01708332303451814
-0.2726561769384162,-0.14811516458598534,0.5425477537999163,0.045091645315061706,0.11841420321369593,0.1471800919429124,-0.16079650685497457,0.02547484407735186,-0.22095124946931044,0.2132248440613674,0.21767486425052426,0.03379006800268797,0.021041844918684917,0.49714267866428713,0.18356017645877154,-0.02175093806387532,0.3105839354069032,-0.0323596589673219,0.32978818903834367,0.3147540395524628,-0.10553692981736966,0.27009894854879124,-0.18522827003557818,0.32052728654457835,0.01583026959959878,-0.15049275032347423,-0.25945526668641145,0.5790226090358344,0.14975722158618612,0.36375383006011464,-0.04417267465685134,0.006645007002082432,0.3558950849415942,0.11436954756263118,-0.09357105896995499,0.42723147275375656,-0.06313612308792693,-0.22391950689660592,-0.06498497688754053,0.0717203367230939,0.37480217081741085,0.08603936846639668,-0.2416460742423951,-0.28679828023239273,0.3341804891436774,0.03793061832566371,0.45964381006930155,0.1578601846462713,0.07256613979579929,0.07711867988907167,-0.11363810490362229,0.13106422481039562,0.2374401989993861,-0.00016128880173533778,0.029376896372791145,0.17058833406157065,0.43684684327431866,-0.06725986416691379,-0.11023067818773889,-0.06503032592352567,-0.10123893124950539,-0.052500820891855676,-0.17873057172537032,0.08292608183145458,1.7702713249877602
-0.07672560791235869,0.16473015308040095,0.007007444266790765,-0.08671309925860918,0.007003523621908672,-0.005231400718199749,0.04734723969206155,-0.04711060256514768,-0.02850665778893975,-0.2254638583224994,-0.036733655979705605,0.24528116059752722,-0.19708515031420806,0.07257531363024436,-0.024423290883129747,-0.10611343939836566,-0.13074174625203158,0.08541619210893264,-0.3691164271876324,0.18743890332895508,0.07356101283271373,-0.05072124315245121,0.15070901001419928,0.19063879037332873,0.07547453901127729,-0.12629995542542433,-0.014343753393202058,0.22233411729336447,-0.038420784324109405,0.1446049319071635,0.16531626943085945,-0.27940349979637946,0.07221930526582052,-0.1524874485630901,-0.13914515784477793,0.03500680184139784,-0.11016563133915327,0.015098208152809269,-0.024181988311670004,-0.03653928130939555,-0.2701055899928957,-0.28184385731544037,-0.20616534374737702,0.030902097916814256,0.022949434099569534,0.2152557691492448,0.08885496173984908,0.01044496736699156,-0.1398844859605779,-0.19668331976964856,-0.17181429078135682,-0.03983850627081073,-0.20794203385575277,-0.06466841173809881,0.053397593665029684,0.051418078601732045,-0.18231717342938467,0.05746325756074469,-0.15369116829095336,0.07473190119146113,-0.05936698362308061,0.009847271253565153,0.05253625632127011,0.15724922094660843,-0.03766814373107958
0.20101557807478115,0.2461961695355806,-0.018719177678723577,0.22501966425398873,-0.1293723631583572,-0.1867281777199607,-0.16737853269243094,-0.21953701709958726,0.08126903442058865,0.16287440969831027,-0.10969820122713712,0.018404984402970698,0.08821767774407567,-0.23574249359488308,0.10130364537339225,0.2075956645992409,-0.38750682541851345,-0.1374747547273288,0.08772765401924465,0.13506540882817533,-0.04383365233244073,0.1946049128398446,-0.06123252735314313,-0.12369719292746947,-0.1519729448678586,-0.11643522500956081,-0.0510218679454422,0.1714527289790774,-0.12123153062191228,-0.1251606882514621,-0.13208285144168222,0.4455610275374959,-0.08020230218005403,-0.02438952855230831,0.016068357603537375,0.017385818572834836,0.11402239623654732,-0.011733412554178233,-0.04232708880743303,-0.011084910310105207,0.011973121828323864,-0.0008606892040286478,-0.046623361781602216,-0.010304704436151679,-0.07485048315135376,-0.05427980112662282,0.0763852430610436,0.11087974197581114,0.1890500186674553,-0.016599015662676363,-0.18258037958484302,0.10944518476914586,0.017222964046490583,-0.07689481262595077,0.3448479236646273,-0.10182570209176728,-0.12674013955260402,-0.15720246587166872,0.11105642403650941,-0.19107096493285183,-0.10128875312011122,-0.07026989429538624,0.43718072328674273,0.046340243758020684,-0.34588264231144206
-0.11151903964717437,0.1859370376900547,0.0736826813103444,-0.0959611467260886,0.032417948012407216,-0.010684683053463293,-0.0994722108445841,-0.20222513240577678,0.21423852683791042,0.01993398450097256,-0.03377986562024212,0.1774739930778913,0.028580842605635766,-0.040234709462674836,-0.061745433083098135,-0.15945514106553085,0.12260216141701823,-0.07214925730418625,-0.09179263829641698,-0.1647974935910416,0.09583875166728296,0.03305375017200972,0.23593419644497188,-0.0031932265221122635,0.04553766271296395,0.07819677776523913,0.21954833706857937,0.20438842294681933,0.11475406555097208,0.060248104328565956,-0.10515747644403114,-0.1209553621560751,-0.08694450977735604,0.11655806730488263,0.3550276298036576,-0.047243132768238695,-0.042971859247437925,-0.0784309711168922,0.11740134454587618,0.025082385981336244,0.13944630942014533,0.12324704413630536,-0.08508912941696989,-0.14657906364429432,0.2260203436190346,-0.10296996300006103,0.05388988982948433,0.06906992039006546,-0.22999623688882567,-0.00735540676413035,-0.016739034613518413,0.036903729486216834,-0.026143321597765473,0.3009763310601508,-0.05692689317297657,0.013029059192385901,-0.07419159033752633,0.1465204691351887,0.15423160887242646,-0.02995056031036049,-0.028969435980412905,0.08207749992437728,0.12479839384547972,-0.10433689721568985,0.0073469872030213325
-0.1266684034653109,-0.030328208008949645,0.2269489799462294,-0.19023377303912825,-0.17026484403622835,-0.008827300463921457,0.047133109469830015,-0.17138026255343064,-0.02554947955068706,-0.12825147800042394,-0.024101325067972502,0.0571602086854553,0.1517029888891128,0.32760489732970643,0.11178136769690616,-0.05338592982057485,0.2151312480140078,0.137112948976358,0.06329401395000947,0.13860212249855502,-0.027774344117721873,-0.027280347203382953,-0.019631731377967955,0.12032524747106718,-0.18966423792684084,-0.1584898880796728,-0.051391188560382536,0.35240395302761857,-0.03947312186387094,0.21897518770229712,-0.18468907531365736,0.19090097440818693,-0.09337849158914627,0.0071234955729751704,-0.07544452225603775,0.17378628638649454,-0.1338302339144263,0.05968014579417636,-0.03667351896448375,0.07085062259346706,-0.008203269404635486,0.016090503371197357,-0.015116792583446533,-0.0046469960831439765,0.19199736922446117,0.014203577947852701,0.03963509030578135,0.05298652144836778,0.05312753309659515,-0.2395224064474015,0.18710977848463006,0.22977727303392437,0.1970750995105145,-0.2320443737522372,0.22653631927979775,0.06319322570782086,0.22531758018722775,0.036892505948838195,-0.06650855718212548,0.08051446430447042,0.0035506379574301683,0.03348717145276402,-0.0491888970505161,0.0827465197305749,0.6211612777300178
-0.14371314908512312,0.2665358190158452,-0.07287605761835851,-0.2686030206939019,0.06904729633164838,0.02055959943181837,-0.2738153948941533,0.23218966227621785,-0.25805322342293613,0.009660069114061752,-0.13545985107257502,0.03541114589729329,0.1276864241284703,-0.06663321873010235,-0.005017482907362738,0.036825122674346546,0.05983209217467945,0.09120483686824792,0.013914449022730244,-0.14404144121671938,-0.03369285340235417,-0.17238043879061826,0.030225350215378827,-0.08446928223558398,-0.13023341163495697,-0.1164810331045354,-0.3038124031775771,0.008453323423066966,0.0035528755866283566,0.12726395704448018,0.06437776012158117,-0.030931492701907558,-0.058261946180059636,-0.07283666954352255,-0.3017429691911242,-0.05924902621911685,-0.032300707263829054,0.23761748455477963,0.12189251968228475,0.022890391990356817,0.049258852993130875,0.13494798862635557,-0.04640717156746552,-0.1064078072957326,0.013349997339306086,0.07527857247038551,-0.07052319622934004,-0.12083142943823505,-0.07506468015404759,-0.029795644051036265,0.09653955857627826,-0.10748318579370134,-0.08889502002569702,-0.08647982945487076,-0.02367684080278203,-0.1231208080949506,0.07380487939103882,0.07979916533537997,0.09730306557709152,-0.07170219846199093,-0.1518910043221827,-0.017127368350263145,-0.18874135051844762,-0.1360835554963515,-0.03503596103267633
-0.24830168601217106,0.0969382378831492,0.028933156611673807,0.05879926818844232,-0.23800911940080674,0.023242142825555225,0.22210158563216892,0.0015828108871950035,-0.07003815473082538,-0.0957712827557473,-0.03744396740869016,-0.2507625449070664,0.22708598922952541,0.06221783024622661,0.09036197290724463,0.06984176724367608,-0.025532452212649655,-0.04442031451361382,0.21846344333319848,0.21339677645831537,-0.03357070905463555,0.1524692888932477,0.1107180246867834,0.08646948529874886,0.07525532943985039,-0.2527766002402119,-0.014027002742649272,0.13751803060419232,-0.2273215860270948,-0.11474087387478513,0.13364489750789438,0.10476488170592542,-0.00322601165287683,0.013700164724489627,-0.2588520307027435,-0.1363861530135402,0.17785731309839156,-0.19769849534371378,-0.02814090147828813,-0.060373378903537035,0.061546587075645566,-0.09763483829187426,-0.10113170833657527,0.18677326668939645,-0.17022790311218952,-0.14060790743171953,0.053789912428955255,-0.0783529839189536,0.06146447804505127,-0.03583260458594673,0.2182392035291869,-0.0030222655734353653,-0.17744666581202573,0.02560235818418573,0.11582301951521334,0.055929542637397425,0.19141747281821267,-0.20897882041382687,-0.007165755294633223,0.08090426529584648,-0.049547011508956885,0.11884211145736547,0.0722072471421399,-0.1262472439874793,0.0604340085930342
0.04751534616179819,-0.03754749770430296,0.2229380768624432,0.1759252162952192,-0.06580189365312475,0.20567614899870423,-0.13824608902064667,0.07172828867131772,0.06781312514860145,0.05106947228921651,-0.11211141440854674,-0.10175527903692948,-0.07549704819428353,-0.01023013350283829,-0.2100951995597345,-0.13125282098712487,0.05070249644823421,0.019251786485873296,-0.2606222362086507,-0.032505908624535396,-0.040492791115416434,-0.1850375735106208,-0.1054165800074398,0.18710505086238885,-0.04206878928932079,-0.0265646018557054,0.2046579143106244,-0.12406113790844343,0.033456488262112574,-0.10234576663821289,0.027297711884079204,0.04332973317760902,0.12229814160401478,-0.20551023100929153,-0.10744627493203548,0.2631811910334931,0.13880598288833465,0.047671550846666376,-0.12175940856731017,-0.0836358097420209,0.08617731316512832,0.20061649095335277,-0.056994299168606065,-0.0007810388332971133,-0.03391248599066872,-0.05819800164799626,-0.045878889723839036,-0.004700722262096868,-0.18782617798097923,-0.012917750496188337,-0.06694252436111182,-0.038620313361074896,-0.08485947938272088,-0.09460967788388455,-0.2539183842013604,0.04078704830209797,-0.06932106025582982,-0.07786951054904753,-0.031571647741293375,-0.10459719375491287,0.24071272963366272,-0.18622337835976993,0.035406731913989006,-0.16654008436063872,-0.13165890140788694
-0.09028860320456847,-0.006972607933061006,0.06756524891020528,-0.08264825986705679,-0.11323749905860798,0.2114023571981989,0.15637172428749027,0.07482611473081478,-0.12787941674441008,0.07982743020066094,0.10737390762670299,-0.047960028612884606,0.1884824357135115,0.3676753851283436,0.03538759398999195,0.033987153850187,0.08317876531245866,-0.12450041411068923,0.029089067373963575,0.12043722686028191,0.014974401210492571,0.04800189640813742,-6.259447197856722e-05,-6.973335239443482e-05,0.014735089246367579,0.005461936574125886,-0.30810872786390664,0.07025003337520418,-0.10364164479090619,0.11301939087753399,0.02126894037415538,0.11303955411591937,0.07267172405299385,-0.05136870210585271,-0.16725847371448618,0.3413644522103879,-0.08036268596431013,-0.11974896328140196,0.12823689951359588,0.085984121128644,-0.010865771110774355,0.10491989313314913,0.0751066501031875,0.4136035581496653,-0.10819692821999814,-0.2138479268405308,0.22951768963447755,0.16673187162772704,0.02393937039185258,-0.15561088153322206,-0.004319774940777877,-0.07857401588037932,-0.13814162141696826,-0.19480790475088117,-0.00997886347936396,0.029414262937864293,0.1079283755718406,0.0666541819006833,-0.07587299128795191,0.02576499521451643,0.02295932864070105,-0.05879413753782624,0.1298622416149346,-0.07409063955386802,0.43499299598536056
0.1490970934969241,-0.10370502236272472,0.2990255663059567,0.09167851836778308,-0.0170256072130236,-0.013986080296528676,0.052827836142058035,0.058571062779122274,0.019870072705140344,0.11436195640944301,0.21999018377974192,-0.06997127033215245,-0.21099929254534527,0.18756162125890477,0.09528333662198729,0.025090773216892598,0.1883259665422879,-0.06790908828565446,0.01024307706952675,0.1201297648410186,-0.21360487290528662,0.009785329321860508,-0.09399583834902181,0.1635051389258912,0.08518418763766286,-0.06699073929807112,0.09806018456889261,0.09665268595349688,0.005258366036072771,0.16874834377087577,0.29644878091933835,0.07289964220218818,0.14866194987320627,-0.024504203627405668,0.08199784221358639,0.18637286629740515,-0.08231182402791727,0.07292632547486011,0.22988354330997468,0.1317099190758467,-0.02220591810739283,-0.040596558636224266,-0.017623120201370565,0.28765173499998237,0.23418234174388822,0.20129942204120688,0.03164432274772252,0.10563465969742492,0.0748484785981099,-0.004975360904434025,0.07983579064443841,0.0478747656553243,0.08883401620619161,-0.07670154894205261,0.07013423616259684,-0.09520191161521023,0.029239328527295723,0.13850111049275404,0.026432483921935836,-0.09850102102376553,0.009386273008440025,-0.061790332433894576,-0.19225931153948772,0.10985195607751509,0.7436402610853016
-0.07886098961494747,0.03414459203790669,-0.09094459038341922,0.017963846748021168,-0.05184530401476486,0.2507993309136865,-0.15637706336775464,-0.19795570376260363,-0.0040325728656931525,0.14153592959596872,-0.16593356099936965,0.03377768709760834,0.030285825985094206,0.022940025451627506,-0.04613256497601489,0.1307704515576139,0.05701182778447473,-0.08042070311419709,-0.015059125992195221,-0.21048972893654197,-0.29240012792871917,-0.09332756825305424,-0.013027022653682253,0.00644981134710842,0.28074372533800673,-0.16728715409571382,-0.1047212722489671,-0.014458397538831203,0.07855622442297346,-0.2254157859986001,0.03214684405957918,0.026067820136397888,-0.04281091417656028,2.238792824366311e-05,0.11589790217241287,0.18706811620792765,0.06880450143234061,-0.1207952137849898,-0.21630266863552838,-0.2538517222276421,0.0829313554055358,0.17344032702283824,0.08976145537695104,0.08841857450942264,0.023260311002567615,-0.28790790088881113,-0.09170132110746985,0.03537727103527966,-0.1055985854200451,-0.06759542357708821,0.12417896814089509,-0.14683376855702865,-0.004960814923765804,-0.07183667746145851,-0.285456899333807,-0.16915392182537684,-0.04541882781041047,0.027931360995960233,0.03374196849365143,-0.10416694201317017,-0.21840423670539488,0.15680856826593034,-0.15238121345148598,-0.09080698757581875,0.03853557412440584
0.09257696251129857,-0.21828373305805918,0.12035501574427827,-0.03666818865348854,0.058246595565205846,0.02735752308313964,0.19172552347969898,0.07250225078347251,-0.2330631250236854,-0.07491387022313398,0.057170245319843674,-0.05775387384281875,-0.009644016671253516,0.06801812776853948,0.023021333157741852,0.009427732809174812,0.15119586754332642,-0.016656867960515187,0.1505399617474182,-0.054211815848945216,-0.031147440428863405,-0.19580376210634454,0.09464392734776364,0.17618146911031016,-0.010881449357975564,0.0005815429956280952,0.09383398397631638,0.03265722285030038,-0.22637870035435742,0.07207792351271085,-0.07425743800993782,0.29586679121801224,0.18106058450242463,0.21745066166737365,-0.1002920360377166,-0.32222700780468205,0.2408201598588074,0.03951372709481024,-0.10941898667156133,0.04496917912494438,-0.0290941863255491,0.24279536695327425,-0.13053848422211342,-0.11334728179944675,0.03487464417680421,-0.1483467224817705,-0.23652781634077238,0.06607736964186776,-0.1267268030117186,0.031674235243716306,-0.01993784537297919,-0.21856982628788688,0.06447758517872361,-0.019799811542456573,0.03990677541748226,-0.06417624027586909,0.1269625170284179,-0.015349125484585243,0.05864854116567682,-0.08208102357241656,-0.053596971749045534,0.05263403684914513,0.1325909048392791,-0.22458938458208733,0.12947283069443408
0.07664557047543238,0.0025097279654054416,0.18368554909087856,0.008621181911046057,-0.1034676366711849,-0.03303802115732543,0.36528845888356193,0.15329525369886843,0.010087453339616732,0.08672541942858007,0.18694971237890592,0.05278741822928499,-0.09331645481727208,0.03677687995139144,0.12475805877002415,0.17019285686083654,0.060281838691250464,0.07630587117872499,0.19221451341763504,0.12538390754780449,-0.2906746706036825,-0.11243084699765137,-0.06267756353913355,0.058047434206187944,-0.07708275274753892,-0.18107249329985334,0.08412185216835873,-0.011654987367814404,-0.0427308156781255,0.23800801962936569,-0.04018297642186764,-0.1539600495651527,-0.011396757017325343,-0.10243846142250257,0.2105013977752695,0.10412115704673681,0.07448379993035321,-0.028352921398793238,-0.08810205673475426,-0.04439740326216427,0.23413136059950973,-0.162755119429625,0.07089384981867529,-0.10149818017367267,-0.21390599991779732,0.15737285034533952,0.09628444870650482,0.19569879142455948,0.338602204611323,-0.1346132238466798,-0.10530621202648792,-0.0764768198513024,-0.09836849358936095,0.04363165155766282,-0.11245687342684071,0.03075353432711647,0.20087312248134637,0.14002154607448858,0.2508619762750216,-0.04201161777809812,-0.03562183598971622,0.07914929586242464,-0.058290353159864035,-0.09436318404458272,0.14672018604946693
0.007168436908024148,0.19895816119236331,-0.22412621558005238,-0.10617547049468055,0.14747506201543628,-0.12694908322777795,0.0350486202089455,0.024796411728414274,-0.03674442437603679,0.237452692753156,0.014080955677214147,-0.08659360693886285,-0.07377917966841685,0.038633301520407025,-0.10181637341046403,0.10983917529553408,-0.15226486386189214,-0.012362868946862442,0.02064581169623142,-0.05831162659288352,0.17573450874854274,-0.0018959311703917363,-0.038413222039353837,0.07594623522668445,-0.0916301092733629,0.023704049430108773,0.25617730471016703,0.08035496215765787,0.08813689546937488,-0.13195715969645244,0.12872288512484903,-0.024970385175228364,-0.0463448690814653,0.03310698613294735,0.18239874096585015,0.020465882369486082,-0.3070183270008076,-0.22401249312583615,-0.1726844135238076,-0.018173006618845744,0.029360183913514342,-0.08245108195904971,0.01326289226318918,-0.11078417402185466,0.18297904004739396,0.02687651675783356,-0.05997919770590401,0.02935934918663364,-0.021696774758528298,-0.17559249961526918,0.01249859369845488,0.056225446163965784,0.16261538891188534,-0.061158806296986425,-0.06476410038115919,0.13619817908425155,0.02359800138980928,-0.005322227736987372,-0.13937312511994135,0.17415050858561962,0.07495732120294984,0.0008150206860277077,-0.013396983548794386,0.14145155325683254,0.08680748762686832
-0.10945914505475374,-0.27694856553432107,-0.1162980704910141,-0.0019485629984803742,-0.15225565942217473,0.08701059192143547,-0.04647966849797023,0.06589799439825834,0.2251145282998821,-0.23529694749506,0.06993875995723511,-0.014357516126894196,0.04339774802909661,-0.26921937674624885,-0.013393394232751996,-0.1111605636448937,-0.10832681750862577,-0.03832116803218149,0.0975529102701363,-0.021573100325541685,0.09100809478003961,0.04987845156490871,-0.10579916321661774,-0.1534418822104329,-0.06573373677217852,0.01617350267551579,0.059815188356853094,-0.10489623955952389,0.2651299445625267,0.19669624754636242,0.5213877856775248,-0.08360815539695499,0.15042693808447688,0.07235181855431443,0.15847614160343987,0.07610075759028843,0.11419027588665025,0.009910974791040304,-0.0048681391163450235,0.12479521717179796,-0.24577932227870297,0.3212816353526368,-0.07436613921498553,-0.04079251350506141,-0.012660615147328599,-0.22554861811768187,-0.22734428095368966,-0.12660693183416907,0.1322060597148262,0.11760754408540999,0.03171427004721532,0.11043570518547816,0.17102092348481712,0.05394394028574791,0.08125949556374384,0.04839239638918119,0.21096976788588317,-0.04748869955637085,0.11208587221659708,-0.0612995588082849,0.06069144039363972,-0.07128189904145862,-0.06965407963991738,-0.002250388725262244,0.03519711889288102
-0.09097239974153408,0.020549933586848704,-0.033173102960744834,0.1496338165875162,0.19135433005497723,0.17024425035124033,-0.07976377790964467,-0.016507605602971917,0.09144322140649898,-0.07024988555149565,0.09641182696077445,0.10157134894429844,0.22240672871133718,-0.04610760062166782,-0.19520700226462126,-0.13374170627320084,0.2507635123909889,-0.07646849865975547,0.1560334241108717,-0.004078261848680537,-0.14465076824969383,0.0038217973963581846,-0.06381141890064787,0.04952215576797257,0.15926389332365493,-0.0666022114714995,-0.22664538150527655,0.11011657481414613,-0.03512245979602891,0.009148662637312224,-0.09935686024505888,0.11829596572778456,0.2047318144759841,-0.11141643486676749,-0.04755392763258221,-0.19398372023307023,0.10503955199641338,-0.009705340452499251,0.028500122256450485,0.07052814345335119,0.24648022421757668,0.05807354210859103,-0.1341302820744367,0.18369357811415354,0.04660475858691108,-0.26017622046129507,0.19043017920883787,0.1337907422293843,-0.09441699455243022,-0.09380242497568143,-0.29644455138458875,-0.041835643642781035,0.036370936207652325,-0.11934289988206083,0.142982875078236,0.08138221271600744,0.003042841066145793,-0.09684632609540039,-0.07900479447180099,0.07180464568448126,0.03398034946691609,-0.02081743662008659,-0.021930796158646692,-0.07604805957984555,0.21469361387688582
0.04803616148914288,0.031167672159391337,0.06389433094814322,0.052211169729121217,0.07079880168550386,0.015343663183987949,-0.14832641947738573,-0.2046964552034166,-0.14727431675252473,-0.06403609208022544,-0.019755070049267503,-0.07434685148278092,0.3301913984233653,0.036791791739480856,-0.05240272672986193,-0.05849554493415125,-0.233073121572194,0.028027328541763413,0.07370826554554742,0.032559871495813776,0.13065771543788654,0.031896270917007155,0.11193669157304449,0.034165000307052176,0.10438473917540707,-0.22973737760405558,-0.1308326950509023,0.14511367277329826,0.08410041078166114,-0.0073406739176942746,-0.07523574141291942,0.10657180580663263,0.04748554041104391,0.3553806929467121,-0.23540483800402104,-0.035637184720379064,-0.13920288285490032,0.019170301678144475,-0.014781816240087741,-0.14583593918296578,0.09511261381906203,0.12059017921221407,0.1024798219250304,-0.16494551032999868,0.0457278957346095,-0.19743373379955628,-0.04687678974237267,0.09172676441044673,-0.17282999184712516,0.20301026687479798,-0.030710490572028504,-0.061422536885064306,0.14780882128869835,-0.02762175487044411,0.24727820293159578,-0.07186989152521378,0.2245566686009996,-0.14415774250825625,-0.02242033857062269,-0.1751881889630634,0.17045423514687402,-0.20854465991718069,-0.02822945564457246,-0.038188456882763705,0.11165135097447038
0.12673653230064677,-0.0010214675645861112,-0.06421662353407304,0.08301264716564365,-0.3136135447082522,-0.06149811107587417,0.06485603747338121,-0.05819272280709846,0.004960189732747346,-0.14545446005234167,-0.10433305892914696,-0.12396466523971224,0.05218996256524835,-0.0943870223011155,-0.18687146253060147,0.09377669219900403,-0.13263992671279085,-0.008668630815167548,0.08210577031548456,-0.05504287696593227,-0.015477030370785396,-0.2219019664406519,0.12230949388769724,0.17269160987498208,0.2607593604413991,-0.05477390582767997,0.08685799065795147,-0.10293843072628063,-0.14733338853991534,-0.03439661734696373,0.02291768817139943,-0.13757221837420103,0.11805715806839201,0.13966818238015966,-0.06392109970861068,-0.004715416350953337,-0.054561519987089004,0.12644001824292986,-0.09011149861434081,-0.11884635582687872,0.13854688958977818,0.048258801068545236,-0.0545006204811887,-0.04787871740601743,-0.031045032077267356,-0.13485376761167722,0.035555166038691334,-0.13589633042760157,-0.13288195517974513,-0.04299002905025686,0.031575718788314736,0.12105858009087542,-0.1139369658000236,0.014517438550951837,-0.07772316968170419,-0.2696359468266538,0.07963567929917797,0.007493546434294556,0.004670013926121318,-0.11961638607245623,-0.08273600188769935,0.032111452055543645,0.020960114438964585,-0.08647860114041492,-0.010519180918678707
0.028848798187613423,0.15675927999304648,0.0554162441981759,0.2007130650062316,-0.08236484494312121,0.19014970660115188,-0.22870245469411465,-0.3489526345927537,-0.09304623870454268,0.17427588987214732,0.020855698879206536,0.062171515629512425,-0.142078566488823,-0.14680106390151054,0.05321534626148229,0.18610348851242622,0.19293798382115468,-0.0407345806382985,0.22317142847031934,0.13228441123094403,0.07469247990419363,-0.09964955548857901,0.15578580675171466,0.13154163151831713,0.11523001701253055,-0.12126536301611866,-0.05590500767659899,0.03685037743163319,-0.19055221821206303,-0.08792700498631455,0.13734306290866294,0.2097232301724429,0.04294066963965982,0.04342898668138878,0.14846847538930796,0.05441691185118324,-0.15399287960773284,0.3281105289297076,-0.07631386736735091,0.21454638367225937,0.025740795254264395,0.09254729787289996,-0.09512764458518866,0.12484461093614653,0.006674976784537674,0.015941817160955444,0.23576426270840262,-0.20400086987116928,-0.021263633777050886,-0.0687050465295608,-0.23454371927507006,0.08456266810870848,0.006132343774507921,0.0027288467342074484,-0.0584245000349964,0.025241343646091773,0.10850694677526643,0.0900164627177453,-0.09825391520061505,-0.09312475372724344,-0.005139836628204072,0.09857480758783821,0.032218649972926,-0.17222016105862725,0.15554192034255973
-0.27174372140898573,0.0007507737440002033,0.18807327745254104,-0.03816653316040679,-0.04263828248327598,0.0427772592196391,-0.02033980918962703,-0.11243946238583545,0.047878651303712945,0.24925055104319518,0.09264434349194894,-0.14378983455714908,0.0187937069710545,-0.023547904122908976,-0.15299622563562765,0.02103853889363252,0.02194570909310236,-0.03773809575903292,-0.04563740799546675,0.04968383993056784,0.09159287492879144,0.04723323717226966,0.05205280100309331,-0.15572280062434757,-0.04824334393924631,-0.1150605324852223,-0.02961633383507648,0.08155884779008853,-0.06852216092160837,0.2005754260929548,0.09136903672105816,0.12922971418460943,0.03484220932295334,0.3128896155613088,0.051792845484964906,-0.2971930767094204,-0.12420311846392217,-0.13121170198926033,-0.013679289142706915,0.03256437374933896,0.08241722181597833,0.03298705315798506,-0.1810405411579159,-0.03858870074195611,0.1715907102804342,-0.04515749853060384,0.09779895969364616,0.0033981661671054174,0.12272262190621853,-0.09698931141541012,0.08447738094333818,-0.03325530425891508,-0.22571988612647903,0.09269667814210525,-0.08048767503951153,-0.053668983052851414,-0.006551824708944417,-0.07624914986848574,-0.021537228816923625,-0.019746381671812134,-0.0749898268938492,-0.02295214190702755,-0.14372879608041034,-0.009935765237800685,0.14800522871224617
-0.007451672089780602,0.005126468981193999,-0.03351439461818694,-0.10494622601253749,0.07607895577912299,0.2249195653597948,0.24149869463548013,-0.06427844579106708,0.019265684315968333,0.05284795035874133,-0.09520381572183831,0.10791223905197235,-0.0806676231806099,0.06386339210235756,0.13613528732232458,0.4082109996952189,-0.04207397068844432,0.07711667089044602,-0.00666100449703184,0.2456076431255143,0.3015759050691533,-0.07437562485746682,0.2333071655954477,0.14381332060600654,-0.01893219730193094,-0.1154161994027998,0.18427601374300503,0.13069588123937925,-0.06251778794619033,0.12495010156202356,0.11686327472308175,-0.07386505347504248,0.1472529242350789,-0.2169647053374948,3.683422417337593e-05,0.12204139574470994,0.07305243857275578,-0.09896285995267712,0.20709165137315919,-0.2505519228246223,0.0948989919605702,0.05853769218401676,-0.10044851092516421,0.1823349820061736,0.009419005896676538,-0.16742286203504061,-0.024072404764862457,-0.1297001557434186,0.17761481980867325,0.07003013140410064,0.04237621925801419,-0.20133578400201327,-0.030714501600332282,0.10467328778585698,-0.03329499332750046,-0.09537346158405222,-0.2725996261830752,0.19260214622460256,0.10663714408174811,0.1850499189796016,0.05766661870814912,0.0427560888586747,0.12192517390670397,0.04885579141036715,0.11478723403444646
-0.22392613700049693,-0.014928809232305492,-0.04236447215141045,-0.02112529648714045,0.0080482750766509,-0.054338989152719425,-0.15432355123194427,0.20203883762578156,0.0362978067678599,-0.13125224920350376,0.06438138408656015,-0.15191990305962003,0.12820155117080947,0.1552730834549654,-0.04558075490164668,-0.04194089000256588,0.04894993344911048,0.24473134008729364,-0.023054758783813592,0.07832891679851768,-0.0009481735905616837,0.1137654216376043,0.12165484672665425,0.0014684247006117599,-0.09534983304309004,-0.055160854268764735,0.02445080998067166,0.34677716049680885,0.18676590430830772,0.19295042815299446,0.04877146606360227,0.1349203744931859,0.138287098330354,0.21086199808287057,0.03347431694504473,0.1656179800691723,-0.07697279954708804,-0.09827602381756047,-0.018030048513020838,0.045398652324758176,0.24799569061554727,0.03663949009694627,0.1338111035133143,-0.0003408651344460916,0.1807343537676122,0.18578223760148008,0.12231798452489712,0.01912743431869426,-0.03996718743744552,-0.11848423794385884,-0.05909694380368511,-0.23020972438452691,0.3496005029992155,-0.06979993864392868,-0.11722910815376208,0.29224465809785743,0.18898839157058925,-0.08601712043920567,-0.09094583545534983,-0.15088542479462935,0.08546782427787533,0.08151196949216151,-0.13039598452723744,-0.0692924972729653,0.6358986943277019
-0.06901573878488348,0.14292763001593545,0.009002959006120269,0.13234300640706753,0.12024188603182516,0.05341254539385614,-0.1335846699099886,-0.10224187575432896,-0.13834028760278136,0.05700439600141601,0.121565910987517,-0.1258637518277222,-0.14579364591507213,0.17739625044629276,0.09808547790777979,-0.10004321782733644,0.2238469218328817,0.21757065891883715,0.02955939180033624,-0.0594311802489677,0.0486027793342893,0.11486499553794498,-0.010702692389363838,0.07229632588948277,-0.12323081207504741,-0.06745358251485332,0.15055244024436001,0.037250502512829846,-0.16845258746910072,0.1927695672687894,0.21900428873014105,-0.17755211177752922,0.02130902912235273,0.17275135018943694,-0.018759820355230834,0.4003557858788175,0.04792057656072766,-0.06993008591367102,-0.004894332037487184,-0.014049185136083832,0.24936230695954162,0.07077675633330652,0.14546782571744754,-0.08560276789124399,0.26990850572564956,-0.014942298824056503,0.28770829520261126,0.03979313632051317,-0.09374059881901106,-0.008860205802660804,0.10616786592456003,0.27975387197479623,0.309207824720723,0.12415200505967038,-0.03561456156350584,0.1740975268422904,0.08108935883843603,0.018418133506202607,-0.09183346444081386,-0.1163122770689801,-0.10645283013126212,0.054299585682570976,-0.046656625470924695,-0.009319079669151322,0.6171724084093375
0.11313159020313764,0.2291491414605279,0.3543901078525846,-0.03872343508395136,-0.16102656483780312,-0.011574613132955965,0.3438410248190335,0.11796732671027405,-0.10672447912700979,1.0902900688120027,-0.07374331074001765,0.1561427953406512,0.2235347309390382,0.5365472117373817,0.19339698022063326,0.11086023824781462,0.16258910458268358,0.4663289141373521,0.41992077125816757,-0.18650027840375802,0.395347828172838,0.011057723550950192,0.05812002651129178,-0.01723797735720051,0.2518177156828385,0.03608640726125594,-0.07153046264742974,0.004459871191086728,-0.049526623250101674,-0.15303958381064361,0.14620298113450597,0.4751042163994359,0.246749130784948
-0.064239624943925,-0.1073000210150787,-0.27622386168981383,0.027894441640587006,-0.20317789230633845,0.11274968958434405,0.30461924998416434,0.20353736875202316,0.13824360339797329,0.7708664447559808,-0.006725402975951917,-0.3048825671046785,0.15331794771874083,0.281165051360757,-0.21741765638456872,-0.1927333974024596,-0.25253575212145823,0.02672733734638082,0.17847155057145,-0.12129687296125252,-0.17871510730155846,0.05735957451252133,0.06863424522019888,-0.14180769090492562,-0.07631097041439559,0.08129069622873888,-0.0470520587175791,-0.16823567091137892,-0.057234917243313053,-0.044731582607721476,0.6422129772739086,0.23367285034458402,0.4779043157485093
0.1297624926685345,0.06864393249027143,-0.27810895518368234,-0.21914864560104172,-0.04022809547709868,0.09564104049699852,0.13207659151819862,0.01427856360600968,0.34938869176710974,0.09705796284446276,0.09338160512002541,-0.10466666839875871,0.43192272005854854,0.10097711620914676,0.09035757767926689,0.00549632922761556,-0.08326797191833575,0.29222636004467706,-0.17048742830149807,-0.1636881887936833,-0.12365387091406317,-0.0990578825630546,-0.08886797981153131,-0.0009702185270067389,0.375711294150103,0.17526204430788375,0.05951906484836019,-0.03682714743961064,0.23978473236931916,0.23382479107497722,0.1665022792713995,-0.2230607082626371,0.01614040136627749
0.05067298172764288,-0.09171416164460616,-0.13137117147266314,-0.4351823570555644,0.18676796656456413,0.0007802554641553589,0.0607294384696661,0.08914837259024333,-0.24942487852762293,-0.04473418179068134,0.005540358241167131,-0.4656260211399587,-0.16625115650142086,-0.027907157939620203,-0.1621271290485128,0.11669413394164961,-0.2936741550816022,0.019979586202218395,-0.057006187844261265,-0.03647465239185228,-0.2579238339966081,0.2199441401553388,0.009012551835510729,0.34351590564063933,0.08802039325892365,0.17364699899986702,-0.01449749465975476,-0.26903293172007897,-0.03154808788987453,-0.09701520486907737,0.09305968926094434,-0.11617620092950519,-0.13481209121295976
0.054089274174708324,-0.35502228559811116,-0.4063383786508839,0.028374781735710966,0.012280858543102268,-0.03325756924310284,0.23056300730273627,0.1710257131718881,-0.09975711855703238,0.49728610977049,0.09952850445870313,-0.03613913631028582,-0.21128923487774295,0.29427386439733894,0.07622390774323427,0.18533796469084687,-0.019822737520485866,0.005851067751250383,0.2930550314505076,0.10524781968619809,0.14043970268904962,-0.1421443479448255,-0.15674773345882578,-0.1572586011418512,0.018145026847347208,0.051411994358217944,0.030674122372207686,0.09493185874606173,0.1873706287422281,-0.18905021477770143,0.31017296834048,0.39765569493073144,0.3296178069239392
0.2179460757807421,-0.1506611232489491,0.02356302573983617,-0.06423591893709503,-0.44919901622552294,-0.021100364800692835,0.33406667701289194,0.4010694380572679,-0.2568989398918774,0.7839881736433615,-0.02425531293016155,-0.12370845517079158,-0.07508118903408582,0.098814441338052,0.1798865956539541,0.3877916660073444,-0.0858093882232783,0.3193914010443994,0.35004671561310036,-0.04822692223965613,0.1486043832122604,-0.12916948476178705,0.03600130489520759,0.11088395521814723,0.1275662879419555,0.05111944983110053,-0.17806554445563288,0.07700622677843032,0.17470574090005925,0.30084877306620933,0.12501728303481469,0.24322619978651638,0.4124061262972386
0.024318277697834713,0.41519215509272706,-0.352141211862109,0.21954689131637153,-0.064801999224556,0.11641574837712781,0.11870423066596739,0.6020307629385413,0.3834560367075664,0.3433591621118245,0.12566191556830159,0.06689168751671269,-0.20632404654762868,0.03538943748242637,0.3076180461319229,0.03812744831982585,-0.13297283047325095,0.08959058903909428,0.40101764390666733,0.06002988271917395,0.06884831904714037,0.4706823554805812,0.040831155206957376,0.2225463911408011,0.27078589355480415,0.13432123328039514,-0.1849668261571381,0.24792369175427847,0.13569764379017754,-0.302715266450765,0.2101332575842074,0.054255419833905014,0.22461308991041506
0.2797677236324757,0.11938588401568473,0.12821934142324784,0.24415144298496697,0.0520282412394932,-0.20490093718490934,0.160539240685596,0.4313272524489777,-0.10259222528190416,-0.07212581300460777,-0.10634473907722136,-0.04196623791530335,-0.080497450426934,-0.3955319941822025,0.1341035650696498,-0.006026637295834637,-0.002857261132504561,-0.23165052842857192,-0.1610755685510901,0.20953958694671293,-0.1398348080453593,-0.11118633800399678,0.06709049511786755,-0.04206236692919879,0.10349534526142672,-0.3761647370028445,0.2057147928372093,0.07104879525138098,-0.11021041270792102,-0.008416767833211436,-0.04862008101483709,-0.18065820311499556,0.1250697762961636
-0.315088224320818,0.2475121910411029,0.18968924358349457,0.08145233084398461,-0.011303780465416977,-0.1785022066322182,-0.1578136634346623,-0.36978495479135304,-0.056503885588056434,0.07705145759886903,0.2834839232826554,0.049978127149641526,-0.2007610985502323,-0.026700004695088615,0.037334250133126134,-0.13661961943578382,-0.2874955254694195,0.011008205050759631,-0.027562772788485644,0.3372849962125993,0.04267434823527642,0.044566544788086644,-0.24533086680682442,-0.25371941452841545,0.1346757008769051,-0.04042794019248163,0.06507578614605412,0.1550457652927819,-0.08301036265607632,0.327916803883832,0.08642694109226992,-0.3374051108631014,0.12917225991298706
-0.30619603739088225,-0.11188850093074537,0.3623418857021771,0.030223107354276673,0.05919868147458091,-0.15735865153701417,0.36717282223534814,-0.19445423219460134,-0.46451394424552295,0.3650290922854871,0.1975394187558452,-0.09069254507484915,0.05968005191925296,-0.10535868258881752,0.10263495487304097,-0.12097700108770777,-0.16879546963033934,0.20127544413653942,0.25847078220544195,0.16264870175214227,-0.19716160162162183,0.11850175909397383,-0.37315263426361656,-0.39239357881678594,0.32434345940640014,0.22307014664788574,-0.2194429159112183,0.21056414982084143,0.0837751631964342,0.45099355410765213,0.06547684827093057,0.37864635271489344,0.06828587268095139
0.23047482078794773,0.46343462247998557,-0.054296904593383,-0.013774383672447738,0.42591133048814744,0.07290625860448127,-0.028817722660500342,-0.04859978122531332,0.2009401583375932,-0.0814722464786439,-0.12774606468698682,-0.14762204908500168,0.12496061370311606,0.17531128039537058,0.10970930883736389,-0.2234574271621471,0.2549988838194543,-0.045019159289488124,-0.10305831939566208,-0.20480023289551905,-0.17245549071765404,-0.026998202432347414,-0.11509604527044624,-0.05704689201705642,0.11490126385269925,-0.17412855448199924,0.0014345000693321973,-0.1021080396747094,-0.1788365366477612,-0.3068216736080057,0.2979391896149641,-0.11711068000205213,-0.16491684212887633
-0.01311738442870092,-0.30582150741092917,-0.15771888946574755,-0.08588258613462048,0.09111805013330575,-0.1944321244351384,0.5119590445302167,-0.22096951645971313,0.0316166550922286,0.8917053333658088,-0.302623338694704,-0.17772928881607003,-0.0836566124759189,0.4386949652618255,-0.045923671516269325,-0.11047183042067524,-0.05162545028921605,0.2858543732531902,0.05700652342904866,-0.12853345080647277,-0.011193133482829652,-0.06189069956028826,0.41894961903366346,-0.1980899239575756,0.16906612881644123,0.07921952797696423,-0.09207459801788986,0.143850469356317,0.2237793184979358,0.15669622417123477,0.3693515920489165,-0.027840839600486406,0.3823944576776152
-0.1978350673634871,0.18592007293028281,0.18576573392889514,-0.018061976748814254,0.036917208045210426,-0.10637537374162871,-0.1537878946888135,0.1283923883251386,0.06611344278664698,0.13511052509399338,-0.26940356378788877,0.0010188816678391023,-0.10980905110389592,0.11095008001480826,-0.07543448244582178,-0.15002949577271027,0.0755143571832016,-0.5966744408260972,-0.30487628198566025,-0.023530621656792247,0.010526742844834984,0.338244371047313,-0.14603680607034245,0.0662233581993418,0.3709342795314208,0.018638720763359783,-0.08783847863779722,-0.22214899951222386,0.0017367212494574075,0.19035225237773334,-0.02127329554449625,-0.10214573448451963,0.09743420478665926
0.05601130792763702,-0.026974047639822876,0.005772874235786683,0.09380414426694274,-0.07333740912236723,0.2469551979637235,0.283977265466524,0.49688117594588954,0.1397069534982101,0.6859159588546171,0.20369423997859024,-0.295713501536978,-0.1932057391774426,0.4022270656995534,-0.25905293574412286,-0.08715097416440215,0.026822782900225703,0.09555756050680855,0.5140543983829101,0.020548541780866802,-0.13779932437251532,0.3004428722234818,-0.10526172869170201,0.07676808847151556,0.03784075786687611,-0.0051127616855182,0.024670161734357293,-0.03194190183141699,0.06457731268884027,-0.3451238903336988,0.23668958700008524,0.5976274995934824,0.4557631784192662
-0.2289133558569277,-0.026531536841348204,-0.027964914998073173,0.04343530850199285,0.14862680525607222,-0.33630670391522444,0.06783538799754261,0.1936958431043432,0.2532912206629044,-0.3579554382940341,0.46960075459856926,0.32231769485410694,0.05953465812651087,-0.29241641157717096,-0.04597848162150736,0.2931909947014525,-0.2080960298748864,0.05003028780480605,0.23698171060904735,-0.005740429321730128,0.160686787716337,-0.22056568107296584,-0.04630702421832524,0.026631150226905306,0.10039552526868772,0.04117673893862204,-0.07902934317164287,-0.11300025694447564,0.11557426108245293,-0.28141435143100607,0.2595298889017294,-0.04161631556090488,-0.04046463492711532
-0.13612466467144305,-0.043761890868662175,0.10170932184922331,-0.14037879608571938,-0.013965010277783152,-0.3750258798518022,0.40660287294068326,0.2902640296195558,-0.23924636719742395,0.404195259229574,-0.19937202835636303,0.03101600129368218,0.26415043498505064,0.22644743655749502,-0.13674093663467426,0.025198333856820687,-0.1544346618348306,-0.015046440669904626,0.09722136084816799,0.046843825498410346,0.3484542634715082,0.0952397339442832,0.008084963734954497,0.10302076240781688,-0.212703529000345,0.1526829836306656,0.0639252266322087,-0.09944117207905227,0.01870093632473516,0.11479324500682529,0.29410748695570255,0.11073306736882534,0.15003168205346556
1.2031370598033202,0.6543138578362478,0.1260423777021715,-0.21697041100468925,0.5171919377860372,1.0274608499769229,-0.016819435529003366,-0.06636102999874414,0.22056558413165894,0.7030412886190428,-0.530793014234818,1.04971587116948,-0.11716995485511832,0.12597698513467845,-0.24786808923265335,0.6239403366998995,0.2651763363417516
0.5850751540384558,1.0921905912258691,0.018101161408959586,-0.19887143377878233,0.6402693167026207,0.4675398520199875,0.8880196461908721,-0.09806065574764375,-0.16294816578234472,-0.21088731087468648,0.09650344701010387,0.4985487779544406,-0.13020146607656982,1.4142477687192743,-0.3556847541165495,0.33852646375854184,0.3850393778197451
